0.765500 0.188662 0.287498 
-0.234500 -0.811338 0.287498 
-0.234500 0.188662 0.287498 
0.765500 0.188662 0.287498 
-0.234500 0.188662 0.287498 
-0.234500 0.188662 1.287498 
-0.234500 -0.811338 1.287498 
0.765500 -0.811338 1.287498 
1.765500 -0.811338 1.287498 
1.765500 -1.811338 2.287498 
1.765500 -0.811338 2.287498 
0.765500 -0.811338 3.287498 
1.765500 -0.811338 3.287498 
0.765500 -0.811338 2.287498 
0.765500 -0.811338 3.287498 
1.765500 -0.811338 2.287498 
2.765500 -0.811338 1.287498 
2.765500 -0.811338 2.287498 
3.765500 -0.811338 1.287498 
3.765500 -0.811338 2.287498 
4.765500 -0.811338 2.287498 
5.765500 -0.811338 1.287498 
5.765500 -0.811338 2.287498 
6.765500 -0.811338 1.287498 
5.765500 -0.811338 1.287498 
5.765500 -0.811338 2.287498 
6.765500 -0.811338 1.287498 
6.765500 -0.811338 2.287498 
5.765500 -0.811338 2.287498 
5.765500 -0.811338 1.287498 
5.765500 -0.811338 2.287498 
6.765500 -0.811338 1.287498 
7.765500 -0.811338 1.287498 
7.765500 -0.811338 2.287498 
8.765500 -0.811338 1.287498 
7.765500 -0.811338 1.287498 
7.765500 -0.811338 2.287498 
8.765500 -0.811338 1.287498 
8.765500 -0.811338 2.287498 
7.765500 -0.811338 2.287498 
7.765500 -0.811338 1.287498 
7.765500 -0.811338 2.287498 
8.765500 -0.811338 1.287498 
9.765500 -0.811338 1.287498 
9.765500 -0.811338 2.287498 
10.765500 -0.811338 1.287498 
9.765500 -0.811338 1.287498 
9.765500 -0.811338 2.287498 
10.765500 -0.811338 1.287498 
10.765500 -0.811338 2.287498 
9.765500 -0.811338 2.287498 
9.765500 -0.811338 1.287498 
9.765500 -0.811338 2.287498 
10.765500 -0.811338 1.287498 
11.765500 -0.811338 1.287498 
11.765500 -0.811338 2.287498 
12.765500 -0.811338 1.287498 
11.765500 -0.811338 1.287498 
11.765500 -0.811338 2.287498 
12.765500 -0.811338 1.287498 
12.765500 -0.811338 2.287498 
11.765500 -0.811338 2.287498 
11.765500 -0.811338 1.287498 
11.765500 -0.811338 2.287498 
12.765500 -0.811338 1.287498 
12.765500 -0.811338 2.287498 
12.765500 -0.811338 1.287498 
12.765500 -0.811338 2.287498 
13.765500 -0.811338 1.287498 
13.765500 -0.811338 2.287498 
12.765500 -0.811338 2.287498 
12.765500 -0.811338 1.287498 
11.765500 -0.811338 1.287498 
11.765500 -0.811338 2.287498 
12.765500 -0.811338 1.287498 
12.765500 -0.811338 2.287498 
11.765500 -0.811338 2.287498 
11.765500 -0.811338 1.287498 
11.765500 -0.811338 2.287498 
12.765500 -0.811338 1.287498 
13.765500 -0.811338 1.287498 
13.765500 -0.811338 2.287498 
14.765500 -0.811338 1.287498 
13.765500 -0.811338 1.287498 
13.765500 -0.811338 2.287498 
14.765500 -0.811338 1.287498 
14.765500 -0.811338 2.287498 
13.765500 -0.811338 2.287498 
13.765500 -0.811338 1.287498 
13.765500 -0.811338 2.287498 
14.765500 -0.811338 1.287498 
14.765500 -0.811338 2.287498 
14.765500 -0.811338 1.287498 
14.765500 -0.811338 2.287498 
15.765500 -0.811338 1.287498 
15.765500 -0.811338 2.287498 
14.765500 -0.811338 2.287498 
14.765500 -0.811338 1.287498 
13.765500 -0.811338 1.287498 
13.765500 -0.811338 2.287498 
14.765500 -0.811338 1.287498 
14.765500 -0.811338 2.287498 
13.765500 -0.811338 2.287498 
13.765500 -0.811338 1.287498 
13.765500 -0.811338 2.287498 
14.765500 -0.811338 1.287498 
15.765500 -0.811338 1.287498 
15.765500 -0.811338 2.287498 
16.765500 -0.811338 1.287498 
15.765500 -0.811338 1.287498 
15.765500 -0.811338 2.287498 
16.765500 -0.811338 1.287498 
16.765500 -0.811338 2.287498 
15.765500 -0.811338 2.287498 
15.765500 -0.811338 1.287498 
15.765500 -0.811338 2.287498 
16.765500 -0.811338 1.287498 
16.765500 -0.811338 2.287498 
16.765500 -0.811338 1.287498 
16.765500 -0.811338 2.287498 
17.765500 -0.811338 1.287498 
17.765500 -0.811338 2.287498 
16.765500 -0.811338 2.287498 
16.765500 -0.811338 1.287498 
15.765500 -0.811338 1.287498 
15.765500 -0.811338 2.287498 
16.765500 -0.811338 1.287498 
16.765500 -0.811338 2.287498 
15.765500 -0.811338 2.287498 
15.765500 -0.811338 1.287498 
15.765500 -0.811338 2.287498 
16.765500 -0.811338 1.287498 
16.765500 -0.811338 2.287498 
17.765500 -0.811338 1.287498 
16.765500 -0.811338 1.287498 
16.765500 -0.811338 2.287498 
17.765500 -0.811338 1.287498 
17.765500 -0.811338 2.287498 
18.765500 -0.811338 1.287498 
17.765500 -0.811338 1.287498 
17.765500 -0.811338 2.287498 
18.765500 -0.811338 1.287498 
18.765500 -0.811338 2.287498 
17.765500 -0.811338 2.287498 
17.765500 -0.811338 1.287498 
17.765500 -0.811338 2.287498 
18.765500 -0.811338 1.287498 
18.765500 -0.811338 2.287498 
19.765500 -0.811338 1.287498 
18.765500 -0.811338 1.287498 
18.765500 -0.811338 2.287498 
19.765500 -0.811338 1.287498 
19.765500 -0.811338 2.287498 
20.765500 -0.811338 1.287498 
19.765500 -0.811338 1.287498 
19.765500 -0.811338 2.287498 
20.765500 -0.811338 1.287498 
20.765500 -0.811338 2.287498 
19.765500 -0.811338 2.287498 
19.765500 -0.811338 1.287498 
19.765500 -0.811338 2.287498 
20.765500 -0.811338 1.287498 
20.765500 -0.811338 2.287498 
20.765500 -0.811338 1.287498 
20.765500 -0.811338 2.287498 
21.765500 -0.811338 1.287498 
21.765500 -0.811338 2.287498 
20.765500 -0.811338 2.287498 
20.765500 -0.811338 1.287498 
20.765500 -0.811338 2.287498 
21.765500 -0.811338 1.287498 
21.765500 -0.811338 2.287498 
21.765500 -0.811338 1.287498 
21.765500 -0.811338 2.287498 
22.765500 -0.811338 1.287498 
22.765500 -0.811338 2.287498 
22.765500 -0.811338 1.287498 
22.765500 -0.811338 2.287498 
22.765500 -0.811338 1.287498 
22.765500 -0.811338 2.287498 
22.765500 -0.811338 1.287498 
22.765500 -0.811338 2.287498 
22.765500 -0.811338 1.287498 
22.765500 -0.811338 2.287498 
22.765500 -0.811338 1.287498 
22.765500 -0.811338 2.287498 
22.765500 -0.811338 1.287498 
22.765500 -0.811338 2.287498 
22.765500 -0.811338 1.287498 
22.765500 -0.811338 2.287498 
22.765500 -0.811338 1.287498 
22.765500 -0.811338 2.287498 
22.765500 -0.811338 1.287498 
22.765500 -0.811338 2.287498 
22.765500 -0.811338 1.287498 
22.765500 -0.811338 2.287498 
22.765500 -0.811338 1.287498 
22.765500 -0.811338 2.287498 
22.765500 -0.811338 1.287498 
22.765500 -0.811338 2.287498 
22.765500 -0.811338 1.287498 
22.765500 -0.811338 2.287498 
22.765500 -0.811338 1.287498 
22.765500 -0.811338 2.287498 
22.765500 -0.811338 1.287498 
22.765500 -0.811338 2.287498 
22.765500 -0.811338 1.287498 
22.765500 -0.811338 2.287498 
22.765500 -0.811338 1.287498 
22.765500 -0.811338 2.287498 
22.765500 -0.811338 1.287498 
22.765500 -0.811338 2.287498 
22.765500 -0.811338 1.287498 
22.765500 -0.811338 2.287498 
22.765500 -0.811338 1.287498 
22.765500 -0.811338 2.287498 
22.765500 -0.811338 1.287498 
22.765500 -0.811338 2.287498 
22.765500 -0.811338 1.287498 
22.765500 -0.811338 2.287498 
22.765500 -0.811338 1.287498 
22.765500 -0.811338 2.287498 
22.765500 -0.811338 1.287498 
22.765500 -0.811338 2.287498 
22.765500 -0.811338 1.287498 
22.765500 -0.811338 2.287498 
22.765500 -0.811338 1.287498 
22.765500 -0.811338 2.287498 
22.765500 -0.811338 1.287498 
22.765500 -0.811338 2.287498 
22.765500 -0.811338 1.287498 
22.765500 -0.811338 2.287498 
22.765500 -0.811338 1.287498 
22.765500 -0.811338 2.287498 
22.765500 -0.811338 1.287498 
22.765500 -0.811338 2.287498 
22.765500 -0.811338 1.287498 
22.765500 -0.811338 2.287498 
22.765500 -0.811338 1.287498 
22.765500 -0.811338 2.287498 
22.765500 -0.811338 1.287498 
22.765500 -0.811338 2.287498 
22.765500 -0.811338 1.287498 
22.765500 -0.811338 2.287498 
22.765500 -0.811338 1.287498 
22.765500 -0.811338 2.287498 
22.765500 -0.811338 1.287498 
22.765500 -0.811338 2.287498 
22.765500 -0.811338 1.287498 
22.765500 -0.811338 2.287498 
22.765500 -0.811338 1.287498 
22.765500 -0.811338 2.287498 
22.765500 -0.811338 1.287498 
22.765500 -0.811338 2.287498 
22.765500 -0.811338 1.287498 
22.765500 -0.811338 2.287498 
22.765500 -0.811338 1.287498 
22.765500 -0.811338 2.287498 
22.765500 -0.811338 1.287498 
22.765500 -0.811338 2.287498 
22.765500 -0.811338 1.287498 
22.765500 -0.811338 2.287498 
22.765500 -0.811338 1.287498 
22.765500 -0.811338 2.287498 
22.765500 -0.811338 1.287498 
22.765500 -0.811338 2.287498 
22.765500 -0.811338 1.287498 
22.765500 -0.811338 2.287498 
22.765500 -0.811338 1.287498 
22.765500 -0.811338 2.287498 
22.765500 -0.811338 1.287498 
22.765500 -0.811338 2.287498 
22.765500 -0.811338 1.287498 
22.765500 -0.811338 2.287498 
22.765500 -0.811338 1.287498 
22.765500 -0.811338 2.287498 
22.765500 -0.811338 1.287498 
22.765500 -0.811338 2.287498 
22.765500 -0.811338 1.287498 
22.765500 -0.811338 2.287498 
22.765500 -0.811338 1.287498 
22.765500 -0.811338 2.287498 
22.765500 -0.811338 1.287498 
22.765500 -0.811338 2.287498 
22.765500 -0.811338 1.287498 
22.765500 -0.811338 2.287498 
22.765500 -0.811338 1.287498 
22.765500 -0.811338 2.287498 
22.765500 -0.811338 1.287498 
22.765500 -0.811338 2.287498 
22.765500 -0.811338 1.287498 
22.765500 -0.811338 2.287498 
22.765500 -0.811338 1.287498 
22.765500 -0.811338 2.287498 
22.765500 -0.811338 1.287498 
22.765500 -0.811338 2.287498 
22.765500 -0.811338 1.287498 
22.765500 -0.811338 2.287498 
22.765500 -0.811338 1.287498 
22.765500 -0.811338 2.287498 
22.765500 -0.811338 1.287498 
22.765500 -0.811338 2.287498 
22.765500 -0.811338 1.287498 
22.765500 -0.811338 2.287498 
22.765500 -0.811338 1.287498 
22.765500 -0.811338 2.287498 
22.765500 -0.811338 1.287498 
22.765500 -0.811338 2.287498 
22.765500 -0.811338 1.287498 
22.765500 -0.811338 2.287498 
22.765500 -0.811338 1.287498 
22.765500 -0.811338 2.287498 
22.765500 -0.811338 1.287498 
22.765500 -0.811338 2.287498 
22.765500 -0.811338 1.287498 
22.765500 -0.811338 2.287498 
22.765500 -0.811338 1.287498 
22.765500 -0.811338 2.287498 
22.765500 -0.811338 1.287498 
22.765500 -0.811338 2.287498 
22.765500 -0.811338 1.287498 
22.765500 -0.811338 2.287498 
22.765500 -0.811338 1.287498 
22.765500 -0.811338 2.287498 
22.765500 -0.811338 1.287498 
22.765500 -0.811338 2.287498 
22.765500 -0.811338 1.287498 
22.765500 -0.811338 2.287498 
22.765500 -0.811338 1.287498 
22.765500 -0.811338 2.287498 
22.765500 -0.811338 1.287498 
22.765500 -0.811338 2.287498 
22.765500 -0.811338 1.287498 
22.765500 -0.811338 2.287498 
22.765500 -0.811338 1.287498 
22.765500 -0.811338 2.287498 
22.765500 -0.811338 1.287498 
22.765500 -0.811338 2.287498 
22.765500 -0.811338 1.287498 
22.765500 -0.811338 2.287498 
22.765500 -0.811338 1.287498 
22.765500 -0.811338 2.287498 
22.765500 -0.811338 1.287498 
22.765500 -0.811338 2.287498 
22.765500 -0.811338 1.287498 
22.765500 -0.811338 2.287498 
22.765500 -0.811338 1.287498 
22.765500 -0.811338 2.287498 
22.765500 -0.811338 1.287498 
22.765500 -0.811338 2.287498 
22.765500 -0.811338 1.287498 
22.765500 -0.811338 2.287498 
22.765500 -0.811338 1.287498 
22.765500 -0.811338 2.287498 
22.765500 -0.811338 1.287498 
22.765500 -0.811338 2.287498 
22.765500 -0.811338 1.287498 
22.765500 -0.811338 2.287498 
22.765500 -0.811338 1.287498 
22.765500 -0.811338 2.287498 
22.765500 -0.811338 1.287498 
22.765500 -0.811338 2.287498 
22.765500 -0.811338 1.287498 
22.765500 -0.811338 2.287498 
22.765500 -0.811338 1.287498 
22.765500 -0.811338 2.287498 
22.765500 -0.811338 1.287498 
22.765500 -0.811338 2.287498 
22.765500 -0.811338 1.287498 
22.765500 -0.811338 2.287498 
22.765500 -0.811338 1.287498 
22.765500 -0.811338 2.287498 
22.765500 -0.811338 1.287498 
22.765500 -0.811338 2.287498 
22.765500 -0.811338 1.287498 
22.765500 -0.811338 2.287498 
22.765500 -0.811338 1.287498 
22.765500 -0.811338 2.287498 
22.765500 -0.811338 1.287498 
22.765500 -0.811338 2.287498 
22.765500 -0.811338 1.287498 
22.765500 -0.811338 2.287498 
22.765500 -0.811338 1.287498 
22.765500 -0.811338 2.287498 
22.765500 -0.811338 1.287498 
22.765500 -0.811338 2.287498 
22.765500 -0.811338 1.287498 
22.765500 -0.811338 2.287498 
22.765500 -0.811338 1.287498 
22.765500 -0.811338 2.287498 
22.765500 -0.811338 1.287498 
22.765500 -0.811338 2.287498 
22.765500 -0.811338 1.287498 
22.765500 -0.811338 2.287498 
22.765500 -0.811338 1.287498 
22.765500 -0.811338 2.287498 
22.765500 -0.811338 1.287498 
22.765500 -0.811338 2.287498 
22.765500 -0.811338 1.287498 
22.765500 -0.811338 2.287498 
22.765500 -0.811338 1.287498 
22.765500 -0.811338 2.287498 
22.765500 -0.811338 1.287498 
22.765500 -0.811338 2.287498 
22.765500 -0.811338 1.287498 
22.765500 -0.811338 2.287498 
22.765500 -0.811338 1.287498 
22.765500 -0.811338 2.287498 
22.765500 -0.811338 1.287498 
22.765500 -0.811338 2.287498 
22.765500 -0.811338 1.287498 
22.765500 -0.811338 2.287498 
22.765500 -0.811338 1.287498 
22.765500 -0.811338 2.287498 
22.765500 -0.811338 1.287498 
22.765500 -0.811338 2.287498 
22.765500 -0.811338 1.287498 
22.765500 -0.811338 2.287498 
22.765500 -0.811338 1.287498 
22.765500 -0.811338 2.287498 
22.765500 -0.811338 1.287498 
22.765500 -0.811338 2.287498 
22.765500 -0.811338 1.287498 
22.765500 -0.811338 2.287498 
22.765500 -0.811338 1.287498 
22.765500 -0.811338 2.287498 
22.765500 -0.811338 1.287498 
22.765500 -0.811338 2.287498 
22.765500 -0.811338 1.287498 
22.765500 -0.811338 2.287498 
22.765500 -0.811338 1.287498 
22.765500 -0.811338 2.287498 
22.765500 -0.811338 1.287498 
22.765500 -0.811338 2.287498 
22.765500 -0.811338 1.287498 
22.765500 -0.811338 2.287498 
22.765500 -0.811338 1.287498 
22.765500 -0.811338 2.287498 
22.765500 -0.811338 1.287498 
22.765500 -0.811338 2.287498 
22.765500 -0.811338 1.287498 
22.765500 -0.811338 2.287498 
22.765500 -0.811338 1.287498 
22.765500 -0.811338 2.287498 
22.765500 -0.811338 1.287498 
22.765500 -0.811338 2.287498 
22.765500 -0.811338 1.287498 
